{"version": 1, "dim": 128, "weights": [1.31787348, 0.73878797, -1.32028529, 0.89229651, 0.12428404, 1.15994855, 0.9708559, -2.27419007, 1.40605612, -0.03610299, 1.29717015, 1.07326961, 1.41464955, -1.48026972, -1.62727168, -0.9974582, 1.3966601, -0.42853724, 3.22948494, -0.8602513, 0.89666235, -0.70204552, -0.17536264, 1.84792309, -1.04479513, 3.8836982, -1.50360394, 1.19182728, -1.3400162, -1.14873614, 0.76978097, -0.65623166, 1.9072704, -0.10914453, -0.07850416, 2.30106436, 2.08403076, 2.27185737, 0.33829659, -2.17969602, 1.47174564, -0.30791279, -1.26694987, 0.0115633, 0.6741907, -1.1944323, -0.16129192, -0.74910669, 0.91923981, 2.81056174, -0.05156961, 1.52742971, -2.05553723, -0.20590686, -0.99980838, 0.97672345, -0.30623392, -1.76568313, 2.48101396, -1.38241917, 1.10359055, -1.14092718, 1.89837799, -2.14746738, 0.55522873, -0.45036295, -0.26001901, -1.4425239, -2.31374543, -1.01478706, -0.99972258, 0.93650298, 2.42833942, -2.82669479, 1.11811423, 1.18798181, 2.63734865, 3.87415276, -1.5620152, -0.75313658, -0.79498066, -1.54468282, -2.04249891, 1.51311183, -0.9796632, -1.06267751, -2.46265892, -0.56633704, 1.91279657, 0.5140837, 0.12435141, -2.3894886, -0.34586727, -1.80643405, -0.11981326, -1.106907, 1.2686103, 0.05069607, -0.14140295, 0.83951734, 0.51667737, 0.389571, 2.2866472, 1.12048242, 1.79293001, 1.0750171, -1.17576871, 0.51651139, 1.34769189, 0.29238098, -1.62327207, 1.04306904, -1.21681052, -1.18887677, 0.17150096, 0.41976652, -3.2422753, 0.96218863, 1.14346946, 0.21902731, 0.94185713, -0.76249586, 1.96233706, -0.6081942, -0.07838966, 0.58267174, 0.07877356, -1.32244575], "bias": 0.17692463, "training": {"samples": {"train": 507, "val": 63, "test": 63}, "accuracy": {"train": 0.8738, "val": 0.7778, "test": 0.7619}}}
