{"version": 1, "dim": 128, "weights": [4.02779335, -1.12881689, -3.56499065, 0.93905242, 1.54646929, 2.43589879, 1.29054828, -2.96839733, 3.49960851, 1.6084326, 1.26545253, -0.26769707, 2.89344313, -0.63431212, -2.21205235, -0.01587471, 1.7349711, 0.07812397, 7.74236031, -0.37056168, 3.29282588, -1.50775682, 1.04819839, 3.58400616, -0.69280756, 8.5986321, -3.23352459, 1.3293682, -1.28102569, -1.84958136, 1.36821683, -0.24601233, 1.48285429, 0.13600646, -0.18358968, 1.01790849, 1.03120492, 4.02025122, 2.28830779, -2.26641316, 2.59774263, 0.0726362, -2.81077851, 0.51192423, 2.23901291, -3.10352103, 1.01506883, -1.1835436, 0.87632141, 4.51292949, 0.84171352, 0.10221161, -6.31871509, -1.92444815, 0.28721435, 4.38207601, 0.5464393, -4.50010594, 5.50861597, -0.30614721, 0.67486675, -1.86946825, 2.02495832, -1.53207015, -0.86168182, -0.46145711, 1.29915952, -3.55003544, -1.97437568, -0.06119435, -3.06466471, 2.06226619, 5.01167994, -4.02211934, 0.49423858, 1.79436982, 4.35135614, 6.01730751, -2.4448292, -0.18516231, -1.36605072, -0.07850666, -3.89732819, 2.95733971, -2.24744963, -3.01623103, -5.56217109, -1.59811561, 2.1068777, 3.02064382, -0.07689456, -5.73744072, 0.26741361, -4.81711268, 0.31795666, 0.56673283, 0.21142785, 0.89077821, -0.74724134, 3.49743643, 0.79655496, 1.77625849, 0.79959078, 3.02600697, 0.76643574, 3.13453085, -3.31097055, 0.1893835, 4.50426741, -0.75190594, -1.44841261, -0.64273397, -3.12624311, -1.12521117, -0.84878157, 0.55509021, -5.79530727, 1.7062873, 1.4065916, -0.50101123, 0.99812054, 0.3897341, 1.18628432, -0.01247151, 0.42190035, 0.74365902, -0.30061916, -1.71474485], "bias": 0.45761739, "training": {"samples": 449, "accuracy": 0.8886}}
