{"version": 1, "dim": 128, "weights": [2.69694235, -1.62752237, -3.21143073, 1.24735509, 1.60911114, 1.32859351, 0.7435377, -2.64352362, 3.10802948, 0.90790732, 1.33410672, -0.52045384, 3.35805245, -1.31961965, -2.23772697, 0.07548173, 1.97660525, -0.85302584, 7.96707758, -0.59350787, 2.53501743, 0.29520038, -0.33454066, 2.10412555, -0.34874428, 8.55076784, -1.42018987, 0.29590385, -1.9044639, -2.2872785, -0.60088809, 0.52110115, 0.99492149, -1.31829382, -2.15979621, 2.67757349, 3.31335791, 4.21773458, 1.92873733, -4.57613667, 1.6791886, 1.69819311, -2.58005801, 1.98811673, 2.2996376, -3.2140239, -0.01798796, -0.39981774, 0.37814514, 5.8760074, 1.53307283, 3.08157972, -6.29342568, -1.39856119, 0.80653661, 2.8753473, -0.00796859, -3.92702023, 5.6608948, -0.41208428, 1.85205398, -2.08982838, 3.19035025, -2.30394389, -1.67184995, -0.92218801, -0.17718133, -4.05906779, -4.17244653, -2.07572508, -2.51299852, 2.84214571, 6.26627835, -5.36004886, -0.5409876, 2.10988447, 6.44042836, 5.95088617, -1.62960591, 1.82635936, -0.94759771, 0.95368931, -3.38730387, 3.83783705, -0.68747003, -3.36594253, -7.4106728, -1.05915355, 3.4547741, 1.0246664, -2.39097352, -6.93773835, 0.66948468, -3.95440142, 0.46665171, -1.56286278, 0.9375511, 0.20838623, -0.5257261, 1.80870626, 0.16649955, 2.79630919, 2.35872043, 1.57457743, 1.68889375, 2.29238148, -4.97529239, -0.27433198, 3.91286987, -0.44739791, -4.45533931, -0.17616871, -3.571118, -1.52738241, 0.01454102, 0.96792159, -6.75180575, 1.66562148, 1.8626598, 0.10077633, 3.34593707, -0.32659454, 1.78455179, -0.51062578, 2.52360806, 0.76088295, 0.2845128, -3.06388664], "bias": 0.0928851, "training": {"samples": {"train": 360, "val": 45, "test": 44}, "accuracy": {"train": 0.9194, "val": 0.8444, "test": 0.75}}}
