{"version": 1, "dim": 128, "weights": [2.3756324, -1.08432207, -2.92495866, 1.10380495, 1.18525425, 1.24652191, 0.92239968, -2.51536285, 2.63908921, 0.8215973, 1.25843706, -0.36045137, 2.90272412, -1.21319517, -2.00324524, -0.12070444, 1.79803286, -0.78308374, 6.77838902, -0.46134098, 2.29515093, 0.06555528, -0.24747455, 1.85054296, -0.33461269, 7.5383516, -1.24886433, 0.34665188, -1.70653404, -1.84944839, -0.27643072, 0.1584882, 0.93880069, -1.03734489, -1.70359956, 2.66198125, 2.83646579, 3.6659161, 1.49988659, -3.90229138, 1.42450676, 1.34605873, -2.14727254, 1.45556337, 1.92030895, -2.75243346, -0.0775635, -0.3172892, 0.42504271, 5.00818721, 1.20995575, 2.49911865, -5.43646875, -1.16474718, 0.73535349, 2.48086537, 0.05188767, -3.32379595, 4.73956117, -0.58225787, 1.61889348, -1.90630583, 2.62283069, -1.82141727, -1.16755384, -0.8202209, -0.05566252, -3.56103274, -3.80884066, -1.84801604, -2.07534442, 2.29282655, 5.34025925, -4.72066548, -0.2467741, 1.93543189, 5.36700096, 5.20611471, -1.54953735, 1.39098442, -0.73184853, 0.68994376, -3.06930761, 3.3436967, -0.69019176, -2.82994218, -6.26787145, -1.00745631, 3.06237116, 0.88698221, -1.98248604, -5.81964078, 0.50461708, -3.44337536, 0.39888678, -1.34041087, 0.76710424, 0.09899395, -0.54232678, 1.69883249, 0.08699093, 2.19222243, 1.9796127, 1.55261055, 1.5073758, 2.0240784, -4.05694818, -0.19351683, 3.36156625, -0.37339686, -3.7488654, -0.03313696, -3.11495563, -1.51542818, -0.11796385, 0.72905067, -5.69344518, 1.5270342, 1.70249743, 0.08329087, 2.84984174, -0.18524616, 1.82024416, -0.4591634, 1.90504767, 0.71635256, 0.21449393, -2.55385183], "bias": 0.01709039, "training": {"samples": {"train": 360, "val": 45, "test": 44}, "accuracy": {"train": 0.9083, "val": 0.8444, "test": 0.7727}}}
