{"version": 1, "dim": 128, "weights": [1.18737463, 1.13069113, -0.87970234, 0.39019359, 0.0476503, 0.98581089, 1.33374345, -1.52815873, 0.97552037, -0.15240005, 0.96112164, 0.75638361, 0.99887274, -1.26106358, -1.13080158, -0.9194607, 0.64759561, -0.35145324, 2.27824571, -0.41902278, 0.89852353, -0.53450324, -0.31727198, 1.5056591, -0.79355215, 2.56075079, -0.98665848, 0.98251884, -1.03555742, -0.45786302, 0.67500894, -0.22867606, 1.20549684, -0.14777556, 0.1725792, 2.31954637, 1.06480456, 1.94814519, -0.21066063, -1.75848718, 0.5100403, 0.00415995, -0.5412783, 0.01817617, 0.29938743, -1.04240425, -0.27764893, -0.50594666, 0.72302747, 1.94029123, 0.12864902, 0.66017606, -1.44836819, -0.21289163, -0.38176656, 0.91263305, -0.01269161, -1.42017359, 1.56533497, -0.99306445, 0.76662391, -0.83740241, 0.894706, -0.91670124, 0.50154154, 0.00572065, 0.09755073, -1.0948614, -1.8533036, -0.53063985, -0.74960644, 0.29277768, 1.57363528, -2.32578068, 0.66429737, 0.67037247, 1.87294724, 2.53493721, -1.06076617, -0.51960475, -0.68160596, -0.73215969, -1.82726205, 1.25659685, -0.82761819, -0.7393851, -1.46713195, -0.44202458, 1.27596253, 0.58504212, 0.03623228, -1.81056281, -0.20634592, -1.59441377, -0.30745518, -0.73068772, 0.9109407, -0.16446871, -0.03299791, 0.73514955, 0.16410665, 0.18171425, 1.59775185, 0.63894146, 1.24519384, 1.18187005, -0.81297253, 0.40567031, 0.86140916, 0.01773726, -1.22141563, 0.84848332, -0.95082761, -0.94405821, -0.0576866, 0.16360177, -1.97155774, 0.69624165, 0.9251935, 0.24520037, 0.88054551, -0.08399888, 1.54473128, -0.53658642, -0.03830647, 0.51389384, -0.14902057, -0.74309338], "bias": 0.08331507, "training": {"samples": {"train": 446, "val": 55, "test": 55}, "accuracy": {"train": 0.8453, "val": 0.7818, "test": 0.7818}}}
